<?xml version="1.0"?>
<opencv_storage>
<cascade>
  <stageType>BOOST</stageType>
  <featureType>HAAR</featureType>
  <height>24</height>
  <width>24</width>
  <stageParams>
    <boostType>GAB</boostType>
    <minHitRate>9.9500000476837158e-01</minHitRate>
    <maxFalseAlarm>5.0000000000000000e-01</maxFalseAlarm>
    <weightTrimRate>9.4999999999999996e-01</weightTrimRate>
    <maxDepth>1</maxDepth>
    <maxWeakCount>100</maxWeakCount></stageParams>
  <featureParams>
    <maxCatCount>0</maxCatCount>
    <featSize>1</featSize>
    <mode>ALL</mode></featureParams>
  <stageNum>5</stageNum>
  <stages>
    <!-- stage 0 -->
    <_>
      <maxWeakCount>3</maxWeakCount>
      <stageThreshold>-1.0123375654220581e+00</stageThreshold>
      <weakClassifiers>
        <_>
          <internalNodes>
            0 -1 0 5.3596336394548416e-02</internalNodes>
          <leafValues>
            -8.9473682641983032e-01 8.0487805604934692e-01</leafValues></_>
        <_>
          <internalNodes>
            0 -1 3 -4.1195504367351532e-02</internalNodes>
          <leafValues>
            7.3827826976776123e-01 -8.5206121206283569e-01</leafValues></_>
        <_>
          <internalNodes>
            0 -1 4 6.9455064833164215e-02</internalNodes>
          <leafValues>
            -7.9912829399108887e-01 7.3446047306060791e-01</leafValues></_></weakClassifiers></_>
    <!-- stage 1 -->
    <_>
      <maxWeakCount>2</maxWeakCount>
      <stageThreshold>-2.4857443571090698e-01</stageThreshold>
      <weakClassifiers>
        <_>
          <internalNodes>
            0 -1 10 -5.9974968433380127e-02</internalNodes>
          <leafValues>
            7.3023253679275513e-01 -8.9999997615814209e-01</leafValues></_>
        <_>
          <internalNodes>
            0 -1 6 1.1136805638670921e-02</internalNodes>
          <leafValues>
            -7.9309004545211792e-01 6.5142554044723511e-01</leafValues></_></weakClassifiers></_>
    <!-- stage 2 -->
    <_>
      <maxWeakCount>3</maxWeakCount>
      <stageThreshold>-9.6130317449569702e-01</stageThreshold>
      <weakClassifiers>
        <_>
          <internalNodes>
            0 -1 5 -5.3399936296045780e-03</internalNodes>
          <leafValues>
            9.4805192947387695e-01 -6.2655603885650635e-01</leafValues></_>
        <_>
          <internalNodes>
            0 -1 1 5.3645767271518707e-02</internalNodes>
          <leafValues>
            -8.8849341869354248e-01 6.9846355915069580e-01</leafValues></_>
        <_>
          <internalNodes>
            0 -1 2 -6.2779751606285572e-03</internalNodes>
          <leafValues>
            5.5374628305435181e-01 -9.4770151376724243e-01</leafValues></_></weakClassifiers></_>
    <!-- stage 3 -->
    <_>
      <maxWeakCount>3</maxWeakCount>
      <stageThreshold>-7.4447995424270630e-01</stageThreshold>
      <weakClassifiers>
        <_>
          <internalNodes>
            0 -1 12 -1.9966203253716230e-03</internalNodes>
          <leafValues>
            8.0901855230331421e-01 -7.6271188259124756e-01</leafValues></_>
        <_>
          <internalNodes>
            0 -1 8 -1.0291114449501038e-03</internalNodes>
          <leafValues>
            8.5950165987014771e-01 -7.4165469408035278e-01</leafValues></_>
        <_>
          <internalNodes>
            0 -1 11 -3.5043876618146896e-02</internalNodes>
          <leafValues>
            7.5988662242889404e-01 -7.6848953962326050e-01</leafValues></_></weakClassifiers></_>
    <!-- stage 4 -->
    <_>
      <maxWeakCount>3</maxWeakCount>
      <stageThreshold>-6.8510746955871582e-01</stageThreshold>
      <weakClassifiers>
        <_>
          <internalNodes>
            0 -1 9 -4.3544657528400421e-02</internalNodes>
          <leafValues>
            1. -8.9125293493270874e-01</leafValues></_>
        <_>
          <internalNodes>
            0 -1 7 -1.1771295219659805e-02</internalNodes>
          <leafValues>
            1. -7.6015853881835938e-01</leafValues></_>
        <_>
          <internalNodes>
            0 -1 13 1.9325767061673105e-04</internalNodes>
          <leafValues>
            -7.9385453462600708e-01 1.</leafValues></_></weakClassifiers></_></stages>
  <features>
    <_>
      <rects>
        <_>
          0 4 6 17 -1.</_>
        <_>
          3 4 3 17 2.</_></rects>
      <tilted>0</tilted></_>
    <_>
      <rects>
        <_>
          0 4 6 19 -1.</_>
        <_>
          3 4 3 19 2.</_></rects>
      <tilted>0</tilted></_>
    <_>
      <rects>
        <_>
          1 14 5 6 -1.</_>
        <_>
          1 17 5 3 2.</_></rects>
      <tilted>0</tilted></_>
    <_>
      <rects>
        <_>
          1 14 22 6 -1.</_>
        <_>
          1 17 22 3 2.</_></rects>
      <tilted>0</tilted></_>
    <_>
      <rects>
        <_>
          2 0 18 8 -1.</_>
        <_>
          2 4 18 4 2.</_></rects>
      <tilted>0</tilted></_>
    <_>
      <rects>
        <_>
          2 22 12 2 -1.</_>
        <_>
          2 22 6 1 2.</_>
        <_>
          8 23 6 1 2.</_></rects>
      <tilted>0</tilted></_>
    <_>
      <rects>
        <_>
          6 0 12 1 -1.</_>
        <_>
          9 3 6 1 2.</_></rects>
      <tilted>1</tilted></_>
    <_>
      <rects>
        <_>
          9 6 3 2 -1.</_>
        <_>
          10 6 1 2 2.</_></rects>
      <tilted>0</tilted></_>
    <_>
      <rects>
        <_>
          9 22 3 2 -1.</_>
        <_>
          9 23 3 1 2.</_></rects>
      <tilted>0</tilted></_>
    <_>
      <rects>
        <_>
          11 6 6 4 -1.</_>
        <_>
          13 6 2 4 2.</_></rects>
      <tilted>0</tilted></_>
    <_>
      <rects>
        <_>
          15 2 8 19 -1.</_>
        <_>
          19 2 4 19 2.</_></rects>
      <tilted>0</tilted></_>
    <_>
      <rects>
        <_>
          17 4 6 11 -1.</_>
        <_>
          20 4 3 11 2.</_></rects>
      <tilted>0</tilted></_>
    <_>
      <rects>
        <_>
          20 15 1 6 -1.</_>
        <_>
          20 18 1 3 2.</_></rects>
      <tilted>0</tilted></_>
    <_>
      <rects>
        <_>
          21 11 1 8 -1.</_>
        <_>
          21 13 1 4 2.</_></rects>
      <tilted>0</tilted></_></features></cascade>
</opencv_storage>
